0.3491008461571253,-0.2764185998080103,-1.5924560362825098,-0.747434202180087,-0.6124046992674014,-0.3156413402914093,0.453852009670365,-0.2385143390063376,-0.11038250838680243,-0.0014177495747116704,1.0476591311746521,-1.6833473965925887,0.46938471038746754,-1.8980689315549297,0.12001060507262984,-0.6891352367642125,-0.004191097579728583,2.162285639223345,-0.05995292102291771,-2.539385615913867,-1.3516292182684584,1.981650936814989,2.3342581885539953,0.37807923713184394,-1.2151212492045569,1.3256442508860822,-1.4041883386927416
1.1997278485557894,-0.41347512108654094,-1.756882575012956,0.213210638139267,0.594309127220871,0.2647104687238808,-0.1477684563338256,-0.6981123893102308,-0.2606761415867104,-1.6837827979182285,1.1292073439171775,-0.29394401331482906,-0.15878291773318334,-1.29066367287542,-0.14817444251250025,0.015395773675455174,1.662538098942591,0.36416215471913876,-0.8057913894030294,0.5732858570394044,-0.3422452218604901,-0.48233393764175,-1.1604107906777563,-0.8390019601475918,-0.06670796331446341,1.4507660687032817,-0.6541271683096263
1.6205671620237019,0.2325050117446477,-0.4123309010520198,-0.7372307275680905,1.452057464071963,0.39850134212828303,-0.5746645619714339,0.2782645169247425,1.0680861028438366,0.2908001204725696,-0.07676811461220252,1.7917633089538612,0.6771257798286026,-0.9477456383906112,0.9323971697450223,-0.7806806880138879,0.7391311213405903,-0.05025394135260062,-0.6961838504937744,-1.1328153684017765,-0.4521702332920165,-2.2011409224888507,-1.6515986596224002,0.32204763011686593,-0.11304219802854736,-0.1838210729998435,-1.9708830778207633
0.04473488264111653,-0.22696964983464754,0.11098861641634267,-2.0536921384322424,-0.9030461306673772,-1.0727449145334307,0.31858963518140615,-0.2584482653811918,-0.2872709429883109,1.4297019477899942,0.15373860157055144,0.40826470890878624,-0.6970890774260327,-0.179454302194146,1.1917546473736662,-0.21749933176069114,-0.12338118294155785,0.12865161974681694,0.7133509951206198,-0.2987019187703283,0.3161362497526864,-0.7243853770676011,-0.1352985989924299,-0.7132349934945428,1.133442966598192,1.3743231718117166,-0.23970602878737354
1.1629430946330954,0.7909851143988927,0.4635211224365569,0.45007351447070115,0.2306794865619658,-0.005696019937768754,-2.1293580655280113,0.7634926666655938,0.7199965046892811,-0.9413986446526272,-0.17272723754141137,-0.256563321462802,1.0955317842363776,-1.9551207347178088,0.13355874498869968,0.5759912038698324,0.715959628148008,-0.14181970672275143,0.45446799815686806,-0.6232630410365413,0.8726394309449858,-0.555192603619328,0.004881096107353366,-0.4642275061213788,-0.3437269153030232,-0.48479511906082473,0.17635007040321132
-0.4199783236789432,-1.3355708839398799,0.18561540508649318,1.650361253822209,1.239999437508058,0.08454096278576091,-0.8519760498993535,-0.776426867160876,-0.5744349802977295,1.9614399872193709,0.6385061055301153,-0.11046689635306352,0.5074792163934304,-0.6372210130353132,-0.1834901861187085,-0.009652831528645643,0.05866777988614244,-1.128631253674721,-0.36210448673530665,-0.0037584416647830103,-1.4156915033920627,-0.5162160936688778,-1.2983423956410307,0.40257971456204494,0.5610341672820145,-0.607781117536306,-0.18349014704754849
-0.09585434916239728,0.13695221630092755,-1.278858557513973,0.30812459259845104,0.2800135342522504,0.5548985475418438,-0.23816587670949863,0.44371766717856825,-0.5978361892029953,0.3699824559968801,-1.4314422304311534,1.0072199302624294,0.45555511923488295,1.0385883621289704,-0.06414523199979648,1.3223290621358015,-0.0630617279383856,-0.22811001893836824,0.5149121773482807,1.2023530161240024,0.9891866773944933,0.40607725531535505,-1.0754961860093886,1.0370677013026772,-0.4587015168463723,-1.0664948196130168,0.4608455705005856
0.6964988587243645,0.8607747765659041,-1.0658286906190537,0.8094868195588151,0.22506190866598688,-0.5728585489788484,0.4471403629964064,-0.2480579496984533,0.2079760191920205,2.010030822518851,-2.375991860160305,-1.0477535068405703,1.8119238589774103,-0.3442710807038109,0.36612286274136063,-0.4688863984234921,-0.628215561479236,3.391907302639549,-0.2895108257684028,1.087887787021853,0.3564845190335661,0.5438697393413464,-1.3537249587815179,0.08017576761680048,1.6364858364353714,1.3932666659687647,1.0841553527798642
0.25898988975255377,-0.09275405162691508,-1.31402916991078,-1.8822790501796411,-0.4504955820825662,-0.8369027301908885,-0.8670130588527892,-1.178953523461507,-1.573038253040742,0.3871011833623853,0.8684738648523134,0.6869256995914559,1.409293783308366,-1.0158523546650928,0.7223674845553324,-0.9737595615504111,0.4798518463291933,-0.07582564630486771,0.24848676048337684,-0.5398927081436795,-0.9493733009425757,-0.8088491147759953,1.1667978637112102,-0.0025311684641441245,1.5516302352021942,-1.2208647796099006,0.4813904744703384
0.5952178645509211,1.500808926790428,0.9511645332945861,-0.11064419627057097,-0.5452656919359871,-1.5262867138724319,-1.1580221854373822,-1.436588358997333,0.2413507447534469,0.03757365246376309,-0.3825086120903838,0.02484144965634965,-0.8992702639047987,-1.4883595898021478,-2.084185765774349,0.40762793831715394,0.26286740628760036,0.6768891166069878,1.4570043822383865,-0.9491109247283845,-0.9599218281713672,0.8661146540492066,-1.2288948090991751,-0.2649077578492455,1.3385139178128067,-0.5731474466158176,-1.2998685189666763
-1.4860141251393435,-0.5709077881377305,1.8197037130020262,0.9023733558475378,-0.8129990712763742,-1.0259290819493825,-0.8669399786048234,1.3467828065472442,-0.29232645589669665,-0.13296967915069607,0.28984731100370015,0.07368019546090816,-0.9182307355215985,1.6645007117556188,-0.19627530736397555,0.25732288504186807,1.4211850043502952,-1.017383998295438,0.3144695248136303,-0.4203530411984839,-0.7431780904680283,0.1925843490615329,0.8986475043887152,-0.3115928717073762,-0.8188310087035973,-0.29976955325225335,0.535626150792835
-0.515465734223274,-0.7406954951590325,0.9495937542671524,-0.15398019884707886,-0.31695252112549577,0.9746045890784052,-0.010187496525439505,0.28189143509479225,-0.4012765975357771,-1.1214130687506467,1.4435859640424762,0.4287281353502824,1.4081638293906393,-1.1774752290231545,0.12898824907441864,0.2585062210044491,1.797510570341078,0.35779239563858806,-0.3929587979812608,0.3766968530937207,-0.6732417151796753,-0.7272432317874091,0.3796252461345676,1.6888888093138268,-0.8530329568261023,-0.6334279823453705,-0.374981424956052
-0.55581251798311,-2.057714964232893,-0.5542520722633466,-0.8917195180760856,-0.5635666771237451,1.384721282652442,0.4202349840436352,0.0638822012879217,-0.2686798492825875,0.8449550667129231,-1.8033515016851245,-2.1056968088067407,0.11583397926118646,-0.8543800072705259,1.5004293246439429,1.8480028097137065,-0.6195041533973727,-0.5826744815494737,0.8658129783151672,0.9651505655157795,0.9901967060540767,-1.3750804637878182,0.18923092665843477,0.16621549873001154,-2.0692163710876073,0.7920537762351391,-1.1017062465570544
1.6699241771772828,0.5592047821059694,-0.37646959212847353,-0.20695421699101446,1.2988489052489178,-0.2567433548899983,-0.6056066045744922,0.2729468596604846,0.44010553147566556,1.14768698562258,1.5366478066336904,0.5851586832273775,1.1704216192051968,-0.8616330956924336,0.3766619489813894,-0.9090718038724785,0.026544296943928826,0.15927883904778645,0.290528981148825,-0.5515777976215267,0.315886753735079,-0.7696998263159385,-1.1841605420203256,-0.29865817988459475,0.6786492428163978,0.47117838619048746,-0.18152549637721233
-1.081619731423015,-0.1357414209777862,-0.3778705148468933,1.1432672954729546,-1.674893117842336,0.6233761845094307,0.689297427582458,-0.008156796337920956,0.12000444091020833,-0.8384217994175237,-1.3290944988211957,-0.146294348301625,0.0421888150889675,-0.9008283026039037,1.501856281228608,0.7625546634156088,-0.8153597906518458,-2.6730442843858038,-2.0371906577076713,-1.0776261044735616,-1.7836634397786622,0.9023997355472118,0.8079177875274153,0.3413380643309457,0.16295141185346596,0.041112347507242575,-0.28285997278803265
-1.6210497769594228,0.8963916833348143,0.6858717787353136,0.21750503313131586,-0.9135694830497619,0.28585705204885625,0.375139604639269,0.29288540885586806,0.7897676616836796,-2.028330563607829,-1.2387649061086645,-0.9689864129023311,-0.4743182227452333,-1.0261259685307988,-0.8846309195191241,-0.06477761909594225,-1.078585492628349,-0.37487697354407407,-1.0558546135613929,-1.205204859451989,0.4436041215641525,-0.34321971694830206,-0.5460912355490004,-0.9510594664288203,-0.9204431344365203,-0.37127133411789615,-0.7515239101410842
-0.5077388216818151,0.9818080943489492,-0.6441792660206026,0.6150447043447127,0.3798701961418838,1.5501722792799495,0.9619052138211409,-0.35318463353972573,-0.6669829653976967,0.9637058996928107,-0.46584152794735045,-0.11684228487047534,-0.02799710397100865,0.02499073592700347,0.8728801527906823,-0.12163278963649496,-0.8639940643521941,0.18761157684435165,-0.06532937063186073,-0.8458353891591717,0.8585125197935555,-1.3464674568925399,0.49306061731328726,-0.9593248455153057,0.6889043708403646,0.2646487596871423,-0.20678444850595706
-0.7306888426956246,0.4228167387075663,0.21803439766568414,-0.2941985030150818,0.8716720201447755,-2.302028288696901,-0.68199332560927,-1.0870839168635877,0.0030293460782322926,-0.2965448401776123,0.027746314501284487,-0.7055809414445466,-0.18421071995844612,-2.2872926695796525,-0.20462732077800014,-0.8513074602852274,-0.5166752196934881,1.8962329398494746,0.21720120318460584,0.07667404295381851,2.43691940445593,1.2326586098395227,-0.2526458564810523,-0.36106841726634015,-1.310891316842891,-0.6824884433863971,-1.191234476484113
-1.20937331453259,-0.015911037033880263,1.526225401414041,-1.29401901530682,0.37181686733525054,1.1104847717365853,0.10725901240717949,-1.0511069168102478,0.9508740726902738,0.3398801989728849,0.8911205604377052,-1.409072531104939,-0.3358206931154205,1.1267995785703633,-0.881577347520935,-0.34904087037372167,0.26158132925892685,-0.27486353940592073,0.10400347700743129,0.09581185831141671,-0.8599353593871586,0.29830445083062374,0.2572304866695641,0.11337530620330785,-1.034182479982658,-2.2999678854568195,0.5890510615116167
0.6679316135771267,-0.38270853320052844,0.41394097004671054,-0.8250076345445463,0.9073625541674423,0.7308360567093112,-1.9631888505237236,0.1441748540852346,-0.7451366143185154,-0.7063905770930043,-0.19291415805473064,-1.3409965176448286,-0.18456471035258157,0.13645986988040537,-1.3341935695886848,0.286597119133599,1.1512433750953053,0.3914137774838975,-0.05246783066694981,-0.5755458161370595,-1.5637350148826774,0.24263781526702224,-0.8714686422798406,1.845596189327457,0.2867338642033774,0.6182903354087159,-0.8507890457194065
-0.922825061627355,-0.8707215329787567,-0.2511143782317215,0.9924877898420065,-1.3304669721582614,0.6910041590875421,1.0419283105652797,-0.24994019737410456,0.038734559032882775,-1.0270890778523651,-1.1653912431934654,0.1558140205698208,1.3648494417535884,0.2939228246506613,0.47708461084556875,0.41799188120119,-1.6965562211213043,-1.2432187836261832,1.799278737304212,-0.3596982562627719,0.6726444295723853,0.2901139967764561,-1.7081418565334836,-0.3141259193283222,-0.0576557510870817,-0.9709853545050775,-0.33790743612477636
-0.7966162813849217,-0.45515388657238826,-1.5620793055857227,-0.9156985310941367,0.06885380783103934,0.15686257337023354,0.18350867808487528,-0.6243181431343934,1.201061528703249,0.9337655272564551,0.43297793098737675,-0.7118909374337532,-0.9985459259115136,0.6375579600670551,-1.212139315153554,-0.22524925404496318,0.8761311684325795,0.45132050493730763,-0.19396668429355224,1.0292066380222424,0.07248106711984129,0.8879300208673865,-0.6913357746703748,-0.7754297277146268,0.35303521684837674,-1.4781818468419603,0.16335526462052852
0.9567660044501927,-0.15601749812579982,0.2556930608984041,-0.33509263453244553,-0.6146260519076318,-1.6214191400456228,-0.7760447317015797,1.525727959859124,-0.794609286190464,-1.3478543716125118,2.052838628536186,-0.3258853679717347,-0.4126186261474848,0.03126007490079392,-0.44364981786867164,0.48773380963432716,-0.2775692728581881,-2.334443592827505,-0.952096263631913,-0.5089216130133299,1.1896954655710557,-0.16449227060991567,-1.3134304192778812,1.7268837217181718,0.9647179873657972,0.8012319363345728,0.2096550504595378
2.3154459105690828,-0.567958772867528,0.29098679167521646,-0.2569732356860885,0.16844629556178312,0.2713144133239877,0.06443615842037208,1.5253395616790093,-0.8247100708076236,-0.06806444370156542,-1.0933621765449393,-0.246884464609529,-0.25751315099121047,-0.15299575438503787,0.6409029704108825,0.13410247159917096,-0.24533956560671943,-1.0726628968341614,0.5748362135207009,-0.11947265235981509,-0.05861013050005611,-0.30179133364499716,0.19388782104069563,0.6193379309418764,0.5981126377505315,-0.35274169494968716,-2.3874981156077717
0.4017479042985271,0.994597224844282,1.158999712363389,-0.2730609014421597,0.1954090465705475,-1.6663740901722204,-0.018558138276727795,0.978820595725528,1.2509631418116527,1.5901957067534478,-0.08759899842082448,-0.32023306302125587,3.159391138505641,-1.1025176796767138,-0.9264680286489183,-1.5511646554445924,-0.6253317626275307,0.38400823049942956,0.5638759260246935,0.6481192320295177,-1.0308694986775573,-1.627288298329566,0.5036097457041002,-1.1750772413251958,-1.1718884180141673,0.35840460213468633,-1.3080385228944107
-0.13172678133564739,-0.21902452300153685,-1.3500176878117527,1.1710885443236512,-0.4491990159421989,-1.5353226034107126,1.507289979901539,0.3341893188710626,0.8171834582178087,1.5822070168381532,-0.6295795195128299,-0.15939037928123678,-0.25808623310643697,-1.3375590397749266,-0.6641271049045827,0.5992250441826533,-0.7839964736752889,0.21540538602968975,-1.1833955891480357,-0.5337608969966887,0.7738204418854583,-0.21066616812264227,1.7157936963741107,-0.8120848743195368,-0.0731440437039781,-0.0013554710872189114,-0.4415438975298834
2.6946189198752566,0.2036280473057611,-0.10810767424268707,2.118834143190623,1.20481604451307,1.3873022790147518,-0.46965553066089216,0.05686044247675562,0.42919545784678265,0.7825625380836568,1.517879683440583,-0.8984736032913986,0.3671927449196089,1.3945800765294978,-1.524641534173827,-0.19712489696679145,0.18891589297378095,-1.429965383442463,-1.116180320441127,0.16023062035698607,2.793118758261243,-1.0877329148357542,-0.1730097490008022,1.0717611669125129,0.17691137545549784,-0.1746836284786205,0.9151958348518725