-2.6266827775519412,1.88242950739101,0.6627962493801091,0.8295357196637186,0.9214807035429048,0.8223520197988918,-0.48825376924463654,-0.010622586973256833,0.2589473034568522,-0.13703654496833242,1.2822503168319095,1.4842277144688105,0.8488692301738645,1.3291260164920902,0.5315105131815795,-0.5447573444821109,-0.27544569706581334,-1.7109160673888155,0.8907428083028617,1.117564829598447,0.6643328633981671,-1.8887298477585153,-0.5921895005017659,-0.7986645124512227,-1.4982964319449417,-0.23680217493010947,0.3203918372937851
2.1232601397484636,-0.3670819187798604,-0.3973036725700408,-0.5386168158871424,0.2669643798782177,-0.14571056733702933,-1.7231409240332314,-1.5747328664739841,1.0755219595922134,0.7286428455951729,-1.6001649708715742,-0.34602265193951715,1.1563921667134063,0.7188664762254404,1.9234037867198792,-2.07489089129305,-1.964739067987768,-2.089225184960311,1.4123589998190007,0.3377634477894613,-0.15318096220454477,-0.7503243514760722,0.04273571123699556,-1.5572212739672173,-1.4490741109702623,0.9463328099709908,-0.6162301695597432
0.6258829897137279,1.8209566497994538,-0.7271819347775229,-0.5515984865970209,0.18922052777104376,2.637605341592197,-1.0286750615182851,-0.682314673825775,-0.25208135509741464,1.455007216465986,-1.0524174032550104,-1.3257165034548903,0.019991271923435174,-0.21035098818911807,-0.015728369347234948,0.4422209018918778,-0.9216899160630234,-0.9528880874043428,2.902155566573105,-0.03741524276694449,-0.6645055227614093,-0.7510895512502335,-0.7390245511745833,-1.0287750477550366,-0.701492287298987,-0.3067345743486007,-0.14749229522077031
-0.7256974042830462,2.530338959337576,-0.991988298557804,-0.41969933681467947,-0.5551205605874902,2.1124649334930576,-1.1001410817700592,-1.4837644721861334,2.314575504306872,1.3118593195248756,-0.5964921878684974,1.435869005980282,0.24507366637101685,-1.2627522625831247,-1.231651523713973,1.6954014012050977,-0.8298135446107621,-0.6558695575852282,0.06945958540966997,-0.22501881924545572,-0.9054190772957263,-0.2720760069343993,-0.6109047389290295,-0.4222639219189669,-0.9634255565347114,0.2084779389348097,-1.2323844455053738
2.0963794448125306,3.075600930655387,-0.5410151597979964,-1.4194334716793686,0.7068594267763572,3.059743172246445,-0.8802791089592183,-0.3247513297666922,-0.19200933006551468,2.391658735986824,-0.3830110636040281,-0.3463038653168863,0.14678100859887708,0.07359728321524173,0.04530307137298737,1.634601840426446,-0.6435638895535353,-0.740710825453497,1.892988926384725,-0.45868854454020286,-0.5513171375994342,0.34634031123941367,-1.0527345149398717,-0.8326628524058675,-0.422579147878459,1.4596066833954207,-0.13292838457906195
2.479316304041002,0.69928373754234,-0.9455722717900662,-0.9594303924812961,0.11841997600110127,1.3329747562567682,-1.1212600607079803,-0.9623758141345131,-0.8469927399749683,0.8882769478425245,-1.3741268654233683,-0.6456163028347525,2.274918833857653,0.8257202716248307,2.080353350744814,-0.25904459215878584,-1.44180180389323,-1.8112953233108646,1.7673068868657202,0.9400956051385368,0.5327158967959201,-1.2709593417741212,0.30917828096107003,-1.5151980585009148,-0.8973580405557036,1.1595487665494033,-0.6088983841308774
-0.04580086880877014,2.1389621374115304,-0.11943474473049542,-1.668768656038167,-1.475583161915866,1.2533637792676802,0.20221827827100278,0.7068965970882491,-0.7557936714358815,1.0754995964825995,-0.3098475835874925,-0.08911982817139637,0.4164924788208899,-0.5891547560956176,0.4214992207777792,0.34862940743794674,-0.3586917465772559,-0.6726446389646149,0.5598387623251866,-0.07980522625146023,0.307302125972049,0.9367357603575407,-0.16623773126994465,0.4577157943797479,-0.1821763327294511,0.7496469303912735,-1.7381835112304607
0.6991300465332402,1.827757959047445,-1.5774939565228805,-0.9234786936494324,-0.9701144828516589,1.8534436698664454,0.03128012749650047,-0.13355816638817317,1.9618853596388828,1.0152311025948664,-0.7003345504724147,-0.392802231018679,0.11789753438259722,-0.2973913343464484,-0.0945590697047877,-0.07597704906092081,-0.17506242259869367,-0.579088511554449,1.0401842654175824,-0.2858936211252515,-0.8303046239370105,-1.1777549635759907,-0.4037912512229262,-0.17882693192389426,-0.8200355347841951,-0.5370602214924457,-0.6012047272456239
3.210008061545783,3.1384589829440346,-0.8734605900577704,-2.1053903369893265,-0.6218299989653482,1.9120633463322683,-0.8619796013968338,-1.4263881289548253,-1.5567094553119647,1.9937372533060218,-0.8082375564153434,-0.5294993494304292,0.3847702657225854,-1.0696149319870605,0.14697625317349453,0.7525507670797934,-0.8749852260081846,-1.2865594075737175,0.5553418539712711,-0.8052683470102129,-0.11574313650046547,0.30562487288165474,-0.30939181137287564,-0.844048008192854,-0.864126251814052,0.7052647344972813,-1.6882771023139116
2.100197161288459,2.0823006416586196,-1.0781120162473226,0.4911939037074099,0.3368203082475601,1.6891540208582363,-0.914882696543089,0.31896056993756716,-0.9560301174461772,-1.0047339904251833,-1.21664976503966,0.35700659929841,1.4816964638004146,0.31775824120902874,1.9419780842353889,0.6437265133826632,-1.311501290782963,-1.2469198208382377,1.0172407806671002,1.4597466516347808,0.556737224623632,-0.9708905973591194,-0.14295998036781815,-2.725454970095885,-1.1462024023848716,0.9300191763682385,-0.15897460669715566
0.1612670352749055,3.519785579880019,-0.25144148121937426,-0.4886456146827258,-0.7123295217146153,2.1773135319884434,-0.9187340394804013,-0.4387750554619628,-0.15341189130602775,0.08500327636579197,-0.6286744432067994,-1.362942509436038,-1.8361562970842367,-0.7985165558141416,-0.39552449139652185,2.275903526263333,-1.3291657010022424,-1.3095862929235136,0.1381653404926976,-0.2636874961649123,-2.0418397525176886,0.9790893116550919,-0.6394801375484275,-0.7967539383016113,-0.5350855672154147,-0.9036198379903876,-0.12892902427351097
1.6964080451208001,3.369397129589228,-1.1158933465552516,-0.505787120382738,-1.1165701520132834,2.689341107072289,-1.2003858975240893,-0.22169364123740432,1.5058335495519855,2.069121688868815,-1.238089447699232,-0.1893538407355716,0.7319633987257761,-0.6864696035461755,-0.6709453627911492,1.6235018738130156,-0.43262886573105,-0.7121963930421845,0.24818360633520958,-0.09976051168647121,-0.17685890702065887,-0.3604034877912455,-0.8552580397580298,-0.3449195054870617,-0.3408333992281414,1.7341918740379756,-0.5968802350722329
2.406986771546519,3.1095851466542617,-0.704130853818461,-0.9611263944472658,-0.00296723840653788,3.218282624618266,-0.8507820275143142,-1.1816857775784126,-2.466282791248229,3.0529034741367567,-0.9818421351780012,-0.9116213816189996,2.430862138164693,-0.7247588887567339,-1.0560676898442378,1.7401273281939322,-1.191407322554862,-1.3448724260545843,-1.0566581363990062,-0.5719583464123714,-0.5930996641221229,0.8370022565988238,-0.502033654184121,-1.0897413127552484,-1.0568798608063248,2.6004715437147827,-1.0637068163691912
1.919346807359876,3.6196129999215487,0.3450951054040972,-0.4080142434581391,-0.33568133036969017,2.4389077318255366,-0.371072116062724,-0.5591314479106547,-2.1254371302529775,2.882882088378584,-0.5086248710794867,-0.35617238698705195,-1.3574126103553867,0.739077621467711,-0.513594379370521,1.7859715937941127,-0.8485549046137227,-1.0314070377652476,-0.9106058309150462,-0.7403058499289182,-0.5570561199681509,0.0659690828337214,-0.633320284680484,-0.6771728516528394,-0.7019513935212085,1.2235546940195667,-0.37319732410922596
3.514196674218427,2.689507828675362,-1.606858165625834,-0.0378840662655328,1.219560869326054,1.8959396758362315,-1.2819745134902998,0.21310052858332865,-1.2972527091932184,2.138189888145762,-1.0506137679818641,-0.9374931867292736,-0.14269848478570235,-1.6277455231296598,2.239267898281376,0.8446579922641918,-1.2719323007778847,-1.3278099502712788,-1.0750686636869284,0.16356012230148706,0.696313116973711,-0.8168996534034922,-1.0829879835542136,-2.0468504556644826,-1.6592961541259819,0.7607897818480253,-0.37658363305205217
1.8525913892237795,0.1383587904563152,0.08258553670627491,-0.05211645085549771,0.2843710105026471,0.010088310012057204,-1.4826332395618242,-0.8043566589908815,0.007567074211864585,-0.5333861877440597,-0.9634727355230454,-0.5420892180576546,1.5249314721943825,0.6485119347186542,2.8950728687432217,-0.11732465097133069,-0.44576065733215614,-0.9696730849122415,2.068643371607308,1.3135416602247012,-0.1493731282205828,0.6628181375834485,0.19074990687662943,-0.30123401564184515,-0.6745587182410335,-0.5551127874737438,-0.5836291860323868
0.10688965692412083,1.6491186854616997,-0.3825925423016458,-0.1532062015614291,-0.3498632234184768,1.3682820117497125,-0.8586283851328903,-1.2648564254222936,1.8501313676805404,0.3150867926259176,-0.8234784943025715,-1.4629414586225,-1.0930474464792963,-0.07867780391797506,0.46159416710558404,-6.0679586801509896E-5,0.10343826658143278,0.40586381927870385,0.9916031676743535,-1.295927161555601,-0.1347256253832952,-1.4466671025914986,-0.12471800752464447,0.08541735481814042,-0.7405408569088244,-0.41190804281832794,0.39101051108217133
1.2543687138611535,-0.17988145247912082,-0.5052813212035926,-1.846304270142313,-0.2175630635880649,-1.2067172208123311,-0.1932474384648282,0.38256333290441624,-1.7643278319339246,0.41678857424414256,0.768054189242127,1.5373722121029931,-0.8008510196294157,-0.7103203831799154,0.9489437077389766,0.9135015171523574,-0.10927083933131808,0.3329568499789443,-1.9528339660691165,0.4278300425201713,0.642149858231379,1.68450734174563,0.6187509351386119,-0.043077123133493794,0.5726381571375038,0.16571123985414438,-0.6297210928526923
2.1521001173248733,2.6934799446185864,-0.9159361674018291,-0.5481245579677233,0.08911769227268317,2.363065251895751,-1.4690696936925391,-0.5684634186442481,-0.26157536255596125,2.9473481788260765,-1.3798729354170836,-0.9365611317806495,0.9078336125799932,-0.04942118344388012,-0.1694918456537892,1.6847898128888967,-0.8948221957040627,-1.0454524056149623,0.9339679483451548,0.1312483059655573,0.102323468177967,0.3442133996474059,-0.6913031966676578,-1.5147633650224104,-1.0586977678250478,1.565041681077222,-1.198791211112867
2.304025325420272,2.331750490645596,-1.3265717247187505,-0.5654794148150081,-0.8654879978188166,2.0155227806434866,-1.4306311541235335,-1.1215639622292057,2.401024745252799,1.7462750082339378,-0.7850826632575101,-0.28373782392995217,0.7320019727973958,-0.5059991503754099,-0.73113726722522,1.4684150707780044,-0.4645245428217028,-1.088908867569043,-0.5733329269902,1.320065913429871,1.8646703349495193,0.3489661396147362,-1.583914273817313,-0.8870056819168349,-1.1974414312532788,0.43829816501947294,-0.9849283583035633
1.963113948261937,2.7793555875812515,-1.6968399925955873,-0.897162426791333,-0.6975230628647076,2.4003656947794023,-0.3552445538006483,-0.4918346195006332,2.293688287807309,2.0647705442154676,-0.45530889243165934,-0.26852327639367085,0.3088663988124556,-0.43543459782482574,-0.3556055202066751,2.3263627316746267,-0.7846932619528476,-0.20085636630548856,1.6206937759204167,-0.2896862022546774,1.6806030027920809,0.04638185284764141,-0.38327670911177514,-1.1721932504512549,-0.2941653649195593,1.604328132120704,0.2612338006717411
0.4576162457285618,0.32172153123088865,0.25478770109452903,0.19007197002747733,0.24275227634076244,0.4573947016727246,-0.3378268708658904,-0.36789917633346064,-0.05066334649470463,0.12604865374734103,-1.03466167911465,-0.7439584931832689,1.0885390995236996,0.505072726880446,1.0541576151203693,-0.3771064954374707,-0.710875023057484,-0.8498961606030957,1.4833905539567864,1.6031312210606872,-0.1502975055759192,-1.9365010195275998,-0.12666197082535244,-0.4165151540652593,-0.30830106472418206,-1.8492904065756672,-0.21685348399080398
0.02732813906929654,2.895472609140727,0.11879519720563537,-0.5482414027865204,-0.35212927106225006,2.7704720624611827,-0.23224543839766937,-0.35981195196824944,-0.011609268870550953,3.291145059475786,-0.6817509504608374,-0.5972821511443477,-0.18390338872057702,-0.4757544728848578,-0.13607701242279527,1.3000608740852655,-0.6071290495030564,-1.150326872184929,-0.03178900297692002,-1.911215276261831,-1.4588852148231533,-0.9884693782415808,-0.10439473510885847,0.10716590926555816,-0.38979593923507466,-0.8553685237291933,-0.650597809755029
0.6245684137149755,1.793533894904666,0.8308515422275841,0.8636717894267391,0.12305630180141275,1.5010438239897965,-0.34522783940228857,0.09788587646041318,1.0318134833453256,1.5445690206206892,-0.6592693355481103,-0.37430437206640377,0.598260459261154,-0.0572300064788013,1.210058431487715,-0.38992349575197405,0.7485564631182011,0.3637097857926659,-1.1796784756737069,0.45682984066881555,0.04307697504561609,-0.2355652105540402,-0.5003064345977241,-0.7995391266125452,0.3203885027230705,0.8418784307814953,0.7923900349229797
1.5300945659169134,1.3950384971635006,0.8239386660784703,0.7761759883349297,0.7704242875251986,1.6059674836592672,-0.9632859078056617,1.5948881276713502,-2.4667997381487328,-0.04428353342438732,1.0966134302712636,1.0194011567437085,0.1978911360251501,-0.7416010043654826,0.9756644763419607,-0.11647713708352027,1.1886129730596902,-1.105284786339399,-0.34588855907666305,1.447882742034818,1.008027383628435,0.6644469805669135,0.8737731370196031,-0.1728047029383882,-0.2584861171493354,0.37131479808694584,-1.7563282478518727
3.1820194518873897,3.2479668793363228,-0.40522120279021123,-9.968446884491783E-4,1.0552588075110403,1.2246898810413283,-0.8769615559527816,-0.5979072112511872,-0.28473952705719585,0.5954260113233609,-0.4370998450666544,-0.16956228248461241,2.579203665866809,0.4862495256472394,3.0869060162466893,1.1075363194406613,-1.0789988459432682,-0.38990267725768135,1.1950402279556975,1.53744452524212,0.3598701974046579,0.475943451689103,-0.3830294281783625,-0.5526839823811962,-0.3365228968482457,-0.6335592585492937,-0.012514521614677376
1.0862319437793289,2.9682622412022788,-0.05065129340365848,-0.03968530621064836,-1.0979838548915677,2.009513751873263,-1.080491206900563,-0.882645981267896,-0.24339755323983897,1.9985288201095288,-1.168834462012232,0.005769746147222585,0.8805774733484898,0.27892132145914567,-0.5309517652443326,0.4440096126263021,-0.39738924657081,-0.878690410725284,-0.3805496023903634,-0.483920961041764,-0.08736548263156632,-0.29391284911929655,-1.6312228883916415,-0.053932882859556996,-0.49191729246815724,0.6279512307856651,-0.7339370311754342