-2.6115715999143263,1.8809857036355857,0.6612500457650013,0.828014259477216,0.9199706685885735,0.820829618542592,-0.48996037906213147,-0.012353809291841399,0.25730744737944944,-0.13903181145902194,1.2807741295906203,1.4827649602279944,0.8473502990626619,1.3276532347486392,0.5299398459261705,-0.5463342801719893,-0.2772926560156177,-1.7017000139013734,0.8892291113642397,1.116075044900677,0.6627869171522429,-1.881349001508428,-0.5937715451079602,-0.8003078075602703,-1.4932376803003073,-0.23863046451061465,0.3187701401557582
2.121822002862549,-0.36899212685958327,-0.39967386635988394,-0.540749072494276,0.2653163026975421,-0.1475384752774879,-1.7206734530531023,-1.5758437138070711,1.074021107273791,0.7270976622153151,-1.6048020514635148,-0.34803364088815153,1.1548992205074196,0.7173197387966678,1.9219585331804692,-2.063353086951786,-1.9555021721754795,-2.077194005293314,1.4108866871225427,0.33613610256453896,-0.15504546113968654,-0.752246596149242,0.041005185729987285,-1.5551901044076755,-1.4476352887401078,0.9448176251331912,-0.6182247300457591
0.6164906179351556,1.8069215588841705,-0.7322327923703441,-0.5438798714658604,0.18588001037198462,2.6283714499479682,-1.023700047576385,-0.6752731008508592,-0.2539724150101797,1.4471948518969235,-1.047869176779854,-1.3220223919527005,0.002198756718193141,-0.19903801685171496,-0.0032125175620448154,0.4312579578736522,-0.916151560210026,-0.9475203128239261,2.893739179605154,-0.026440944592070508,-0.6579572357380654,-0.7584692523883954,-0.7323725008153399,-1.0238005324733896,-0.6945849361183887,-0.3222472709677784,-0.13544089306125592
-0.7463739213557995,2.521139700229323,-0.984763250360971,-0.4199209314044357,-0.5442255545104251,2.1018562521201343,-1.0936591010035055,-1.4799717464356714,2.30489948808682,1.299757429337565,-0.5866751297899349,1.419133359251419,0.23389166566146102,-1.2572457990010157,-1.2259706139526323,1.6830977992259755,-0.821621280879372,-0.6491598725356872,0.06675432619377648,-0.21095296337582653,-0.908396645495115,-0.2680736502011978,-0.6003102148112098,-0.409455609374943,-0.9569209129504066,0.20015201146783224,-1.2279473164973618
2.084430474356944,3.0661505417797525,-0.530651588456338,-1.4159420450807472,0.6976222587701588,3.050285656464263,-0.8742387213799605,-0.31926001980990093,-0.21358453438877062,2.381753176627045,-0.3732968948607098,-0.33425311578425976,0.1493882038454701,0.08406058293040378,0.05489844309316869,1.6101691496280035,-0.6339350826089319,-0.7322877566950022,1.8824033094815664,-0.45610701316341357,-0.5419955519574152,0.3436611500395129,-1.0516197080156657,-0.8318356969383536,-0.41055457505529913,1.4393541296659598,-0.117142563516458
2.4771869359539274,0.696600393036392,-0.9428691784458462,-0.9673782714682039,0.11562743480456629,1.3306486783416926,-1.112868908429414,-0.9616152886387431,-0.8498383224347853,0.8857516790977517,-1.364917687779078,-0.6466024437685597,2.2727707719369485,0.8231571362564283,2.078182991377118,-0.2627669356917707,-1.4430887768693905,-1.798667376797458,1.7650880877360098,0.9375954510756804,0.5287307158006709,-1.2632504929176114,0.3063211565845828,-1.507913650538831,-0.8961042799081967,1.1571595176442633,-0.6087597134079037
-0.06403707188833198,2.1218573954998887,-0.11333586340274787,-1.6674764581648103,-1.474015368377663,1.239178901143362,0.19698654884569444,0.7205764262072344,-0.752880246152133,1.0458449698680965,-0.30480883665749825,-0.08345262674128975,0.42072555198979844,-0.5853462798991935,0.4307553583525921,0.3397546046462667,-0.3538937823160165,-0.6691417607431118,0.5364636320462333,-0.07531904353760963,0.3110738995673249,0.9512565438018927,-0.16041854046689366,0.4673610228485514,-0.17644942319973192,0.7598952801102127,-1.737596422203511
0.6949707896965159,1.8157433523349602,-1.575413262075103,-0.917683219648071,-0.97047148878603,1.8425868599856028,0.04609666516027974,-0.128519738480454,1.9537098720925143,0.9962978350316997,-0.6940153327157581,-0.3829291582503071,0.12443433880237557,-0.2883887290418232,-0.08963181025525913,-0.0882221679866551,-0.1627726222926176,-0.5709004694150535,1.0188071336309186,-0.2842223755060106,-0.8335515929505132,-1.1995889721699144,-0.3943371598530871,-0.17466784255800408,-0.8136063982703426,-0.5381400036798155,-0.593506781298369
3.204107991034043,3.132548720205961,-0.8633889284148262,-2.1023619533376183,-0.6131247100534842,1.9053938743368994,-0.849896113189714,-1.41980285172012,-1.5506971397404719,1.9872485988776436,-0.7976258545287606,-0.520779628499029,0.37122485847062975,-1.0956457212355672,0.1388153820838677,0.7264855770458516,-0.8627559197272476,-1.2785782308262283,0.5440980002678854,-0.8014611818147048,-0.11099435520767847,0.29468388983199034,-0.2993948549401774,-0.8342215544912321,-0.8514481640902435,0.6997913623214402,-1.6889339415000926
2.0977034477677696,2.0798044133739704,-1.0801613472195029,0.48718555361600036,0.3321651776063535,1.6865870265299534,-0.9083244124723436,0.31578345709401057,-0.9491340981031742,-0.9955034954956715,-1.2122343902288928,0.3535643674305084,1.4790761219657564,0.31474551448851906,1.939460243483341,0.6406453375188845,-1.3024439351790262,-1.2358288466262775,1.0144258862779627,1.4571198221835582,0.5532669545519506,-0.9689442526140714,-0.14469626462739585,-2.721758393276008,-1.1437981126349515,0.9271507140515489,-0.1646324027727455
0.1547378321346791,3.506012054796699,-0.24146535579325976,-0.48178117483034316,-0.7070940017195527,2.1562221903134158,-0.9134693052414444,-0.43025320650329757,-0.15604511373052105,0.062394681613239224,-0.6222520071327153,-1.3601883719268582,-1.8368402027404693,-0.7941269900729359,-0.38724510382773353,2.254654376475374,-1.3259859543125034,-1.3060278716471891,0.1499650566087022,-0.25570085296397355,-2.0407489314417293,0.9512100775763843,-0.6340639516162482,-0.7926638161254339,-0.5273492443740248,-0.9013732079514815,-0.1172936523870507
1.6825428711708625,3.359260509746545,-1.1105490550540345,-0.4954028065047762,-1.1112299066408842,2.6785240598414006,-1.1952161504207708,-0.2070449303527118,1.4922252757503465,2.054490980576433,-1.233432803531121,-0.18044778898114522,0.7266448891278862,-0.6800855975999734,-0.6696953020510762,1.6085460555136768,-0.4207826992947205,-0.7032524815130896,0.2376400076373184,-0.11279804110138744,-0.16682744466325752,-0.3632146705996736,-0.8481314812366646,-0.34255567642390133,-0.32784082770301415,1.7191062713906946,-0.5874587412698381
2.398163485282168,3.101205491970934,-0.7024090369818832,-0.9550628195352616,-0.0098999027320556,3.2099434043237465,-0.8421629126177181,-1.1724624920514621,-2.4691067496085224,3.0445006234632377,-0.9701515707666536,-0.9045415705857225,2.422062047180542,-0.7258975117795996,-1.0478401524207908,1.7300645020637815,-1.1850884030178046,-1.3363935133672127,-1.0496819886842952,-0.5808090793672878,-0.5970710316967246,0.8191506431492344,-0.5025320428518207,-1.0825538615791042,-1.04430877034907,2.591813311828596,-1.0543315337102428
1.9039695850235658,3.6106381765170372,0.34049243174666965,-0.4096222603003761,-0.32781149420194683,2.4290234575445577,-0.3565770054801119,-0.5468791147629076,-2.1244381997543234,2.8734921579739954,-0.4979109440834944,-0.3414533516670313,-1.3534659393058173,0.7315952668666956,-0.5069880243135911,1.7724991868757447,-0.8511928454962907,-1.023784528922639,-0.9321042280811465,-0.7409657488388658,-0.546021945537392,0.045534802652160304,-0.6228814901822433,-0.6669136753462644,-0.6913384990312353,1.2066570850610348,-0.3618472429525092
3.507550496611695,2.6827389367506917,-1.5967889006726432,-0.04397300998582787,1.2118914780495662,1.888891017957138,-1.2679837320752052,0.20545164978017083,-1.288203470257407,2.131253365318938,-1.0423570694962099,-0.9309667890275457,-0.14917944876538902,-1.6213574459141553,2.2323700363038346,0.8355432973940049,-1.2558937483797559,-1.3118001590349728,-1.0673456292722048,0.1504602057021524,0.6834726155169839,-0.8191032693795558,-1.0788706840829279,-2.0421944501492804,-1.6492496910098169,0.7495159114501931,-0.3787363486162144
1.850364468079283,0.13958005599328988,0.08402901766922932,-0.04822441611054647,0.28020576122923485,0.010863673304005669,-1.4838066031249033,-0.7995067395234026,-0.004070992648986763,-0.5305449063792709,-0.9526363655269735,-0.5391470856892386,1.5224088851976458,0.6464508666056217,2.8932160632433632,-0.11626319526188557,-0.44881905766854313,-0.9548857681184978,2.0665856104193727,1.3105543153690482,-0.15043072365272075,0.6574312780754652,0.1860217846265326,-0.3061021563331532,-0.6674371299080478,-0.563429612406301,-0.5772962839566197
0.10632941709359055,1.629151986335565,-0.37728596824339805,-0.14605614960902744,-0.3437389774193395,1.3409749962406776,-0.8552603915396337,-1.2624080942436051,1.8419667453228312,0.30806615500781487,-0.8199787025644916,-1.461242865220615,-1.0950909654024947,-0.07094824974434798,0.47512355886599195,-0.009672197870550996,0.10098155703689046,0.41894917836053835,0.9680174346073153,-1.298503949731443,-0.1323991502783054,-1.4458635292955686,-0.11704134972973572,0.0948977844421852,-0.7364013521979585,-0.40987226033315866,0.40390168356457506
1.2529894119125093,-0.18216628133643042,-0.5040279237717178,-1.8459765622843638,-0.215891453475246,-1.2064050028795295,-0.1915346482844049,0.38561170888179697,-1.7639721228850136,0.41591968531253737,0.7725395789443952,1.5470785396714624,-0.8002276663956683,-0.709917809962356,0.954320893147113,0.918071318769409,-0.10740786152597058,0.3358574798004715,-1.95284843634883,0.4304007838731432,0.6461035612944567,1.6317479034941478,0.6226130211111525,-0.04201449772948798,0.5763258706695596,0.1681645947061385,-0.628614435676849
2.1478607713883053,2.6894093231516147,-0.9088999020476699,-0.5503835262184283,0.08486416103541335,2.3589063896276317,-1.4605083113879487,-0.5640927581957631,-0.2611806883698285,2.9433247592099048,-1.3752220152376629,-0.9452207752937988,0.9014731114332342,-0.052855708759594285,-0.1713711095823731,1.6802187835312818,-0.8789319680285398,-1.0330375734093296,0.9270776316567324,0.1284108434252744,0.09213133342737047,0.3352679878398178,-0.6914444016822199,-1.5104399051726687,-1.042461071622874,1.5603298353438984,-1.1910422409463244
2.2954387839041277,2.323195231789039,-1.3236614630280341,-0.5639132633412187,-0.8532934328067026,2.0065783549873184,-1.422757313470632,-1.110596698459269,2.3925315941730227,1.7367011219872042,-0.7694428922543977,-0.2824300457851589,0.7188377516071074,-0.5125583282898939,-0.721446192648271,1.4570288593547198,-0.4579855776044994,-1.0772438101206676,-0.5703648919204413,1.3092972472136186,1.8554716051076185,0.34175178353879315,-1.5809735175534592,-0.8798020174036978,-1.186703916890152,0.4263519991201547,-0.9747422655864854
1.9493031440085218,2.7688760368959118,-1.693633639586291,-0.8945971359958783,-0.6879430681504178,2.3891040188702206,-0.3423499335324129,-0.4806754981229737,2.282507532982857,2.0502600112736067,-0.44401986826179374,-0.2537726747575441,0.2933367854222804,-0.4242097817333985,-0.34893849410090844,2.3152804560167586,-0.7759165519481463,-0.1850648102951783,1.6081514033152606,-0.2861414925206625,1.6671579916792298,0.042297665764445214,-0.3748021090750765,-1.1696539191869204,-0.2804134684761164,1.5937135864375485,0.2535594731567707
0.45300576213655397,0.30898499537512136,0.2584464138562904,0.19146908126979817,0.23559907604943675,0.4483524004542998,-0.3239766971808545,-0.36337544429820134,-0.04237839638516255,0.11970194087722325,-1.0292048957282818,-0.7597526598745017,1.0765794043243393,0.5029312408479554,1.047708036228657,-0.3612152588341636,-0.702274281040957,-0.8411987491439109,1.4760327482704514,1.5923406960341047,-0.1520335788746443,-1.933462744513467,-0.11374888637220229,-0.42506588251051824,-0.2985369804180591,-1.8489868824061655,-0.20856401213367817
0.010311465476748142,2.8760338167631105,0.12979623518631633,-0.5424520159574667,-0.34539117887639925,2.753026187837511,-0.22429591122215248,-0.35281787373822016,-0.0019979491739992306,3.27600482307646,-0.6766869809099786,-0.592700233652509,-0.17990296105394754,-0.469528475334276,-0.12980456119624892,1.2892312230400134,-0.6016716567155743,-1.1471604042405696,-0.03697190220562771,-1.909737001396311,-1.4565604162974986,-0.9869127038487018,-0.09752908286429851,0.1183462111847034,-0.38300916861442175,-0.888583570218781,-0.6453731748827152
0.6196022024480291,1.7409322244529954,0.8439301742145563,0.8775114247067463,0.12715084573937546,1.4807320326168787,-0.34173589258752485,0.10398678576986964,1.0410417455951955,1.5257308422711735,-0.6562677894578859,-0.3721689950259213,0.6048178236199936,-0.052362530863358965,1.2115827955843892,-0.3971388286425157,0.7608818101663403,0.3720811511585094,-1.1847002101979651,0.4598129470491485,0.04666522807927665,-0.23871957860113296,-0.49678681816910103,-0.797549770551836,0.32840351182224287,0.832705409670717,0.804960232739524
1.496720215358396,1.378455694422036,0.8323509909373263,0.783248891759791,0.7771390310979064,1.6139023186790158,-0.9627585818999448,1.613842530019734,-2.466785458697393,-0.07220889685760022,1.1080863708271866,1.0300169918395565,0.1904658375607539,-0.7400938147842878,0.9855130709346438,-0.12577155745304897,1.2011985543234667,-1.104022480643566,-0.3431890713354402,1.4545654943829052,0.996777202793898,0.6703280354436087,0.8829436179099374,-0.17052281868189328,-0.2672996066830773,0.3675568587902928,-1.7615433240995337
3.1783881313438482,3.244343500458376,-0.3963941294834983,-0.011053143401076493,1.0444521023729088,1.218651865577889,-0.8699666603152588,-0.5930447136136938,-0.2721319422758958,0.5822868028366435,-0.427569544046635,-0.17455493437751207,2.5754563779193327,0.4821166656938293,3.083262087699439,1.1011395094093526,-1.0749017274887016,-0.3742611936624355,1.18957548486934,1.5325067579431353,0.3645578746851179,0.47358378967962556,-0.39844209128242586,-0.5390678596692976,-0.32677527359117686,-0.6270170916494202,-0.011285765103212001
1.0756818131360364,2.9579459644232333,-0.03927128627717341,-0.027543250585479438,-1.0941921631682565,1.9918180376608274,-1.076002091478366,-0.8774819149243221,-0.24635582207532591,1.9826346012054556,-1.1653450169411557,0.018509218450338462,0.8742993788656408,0.28560520886562146,-0.5244025452529463,0.4304490673047208,-0.3891017295851971,-0.8731947183243628,-0.38142306466692266,-0.4769952968880042,-0.07644306952700049,-0.3066988780968467,-1.6292561075773313,-0.04228348163915168,-0.4841260480716282,0.6069920634421977,-0.7415327974879902